-1.348998e-01,-1.185709e-01,-8.341522e-02,1.124604e-01,-7.547812e-02,-2.012436e-02,-4.911559e-02,-2.742995e-02,-9.913312e-02,-3.272226e-02,6.635492e-02,-5.442387e-02,-4.460238e-02,-1.500543e-02,-9.110952e-02,-3.068146e-02,-1.859742e-01,9.693353e-02,1.011003e-02,-4.609819e-02,-5.693447e-02,-3.154395e-02,-5.337274e-02,-3.474479e-02,5.453859e-02,1.830904e-02,1.372852e-02,5.997007e-02,-9.723753e-03,-1.169798e-01,-7.745211e-02,-1.291950e-01,-7.145430e-02,1.540973e-01,7.435155e-02,1.548718e-01,1.644602e-01,-1.122760e-01,1.870479e-02,5.428495e-02,-9.267535e-02,-6.743431e-02,6.386302e-02,-5.026115e-02,-1.173957e-01,-1.856231e-02,-8.149693e-02,1.298017e-02,4.394254e-02,-1.148355e-02,6.542007e-02,5.333241e-02,-4.142838e-02,-5.816557e-02,8.685143e-02,-7.456123e-02,-1.232417e-01,-2.029075e-02,-1.410399e-01,3.315755e-02,-8.023034e-02,-1.056072e-01,-1.447673e-01,-2.148099e-01,-8.369803e-02,-2.000803e-01,-2.225337e-03,-2.928427e-02,-8.246086e-02,-3.525873e-02,-4.577258e-02,7.749313e-02,-3.008069e-02,1.768850e-02,-1.136872e-01,6.109193e-02,-1.199465e-01,1.034135e-02,-1.064644e-02,3.878938e-03,-1.120820e-02,-2.248009e-01,-8.924686e-02,-1.093594e-02,-1.044039e-01,-1.376300e-02,1.518092e-02,-9.257821e-02,-1.191766e-02,-6.986161e-02,6.728857e-02,-1.081955e-01,1.787611e-02,-1.121350e-01,-4.864299e-02,-2.066075e-03,3.194699e-02,-1.112326e-01,1.582050e-01,-8.395503e-02,3.454985e-02,5.673589e-02,-1.168256e-03,-1.486557e-01,1.028968e-01,-2.247270e-01,-7.443704e-02,-1.242188e-01,-5.769941e-02,-2.695360e-02,-7.642121e-02,-4.677771e-02,-6.255592e-02,3.243257e-03,5.093437e-02,-6.913827e-02,-1.164595e-01,-1.121562e-01,1.462177e-02,-5.906173e-03,-8.084759e-02,4.608185e-03,1.133381e-01,3.607724e-02,-6.370600e-02,6.334382e-02,-4.200445e-02,-8.553440e-02,-9.494103e-02,-9.180822e-02,2.838987e-02,-1.119166e-01,-1.179534e-01,-3.422263e-02,-1.115759e-01,-5.098631e-02,2.205750e-02,-2.448648e-02,-1.998338e-01,2.512679e-03,6.794843e-02,8.605668e-02,2.261310e-02,-5.340042e-02,-2.028712e-02,-1.135453e-01,-5.220836e-02,4.232452e-02,-8.448717e-02,-1.078764e-01,-5.328359e-02,-9.268072e-03,-9.421676e-02,6.980751e-02,-6.425796e-02,-1.046782e-01,1.271278e-02,-1.245533e-01,-6.630202e-02,2.448870e-03,-1.085875e-02,-6.613857e-02,-6.745460e-03,5.212848e-02,-4.130498e-02,4.712846e-03,-9.511503e-03,-1.529446e-01,-1.272466e-01,-1.792151e-01,-1.297742e-01,1.645170e-02,-4.727446e-02,-3.929117e-02,-1.337620e-02,2.086450e-02,3.037014e-02,-3.257238e-03,9.564180e-02,-4.794386e-02,-6.170755e-02,-9.673879e-03,-6.235840e-02,7.731164e-02,-6.021783e-02,-1.401026e-01,4.807268e-02,-1.113782e-01,-1.088005e-01,8.523767e-02,-6.235576e-03,4.554727e-03,-4.665483e-02,-2.931199e-02,-7.250840e-02,8.640824e-02,-6.513747e-02,-2.075343e-01,5.260414e-03,-3.167686e-02,-1.325073e-01,5.789155e-03,-3.931271e-02,3.160641e-02,1.830500e-03,1.616961e-02,-4.269480e-02,-1.130265e-01,-2.897201e-03,-1.183547e-01,-1.447065e-01,-1.194500e-01,-1.727845e-02,-3.807347e-02,-6.390600e-02,2.093347e-02,-1.639873e-02,-8.953272e-02,-3.711106e-02,-7.948204e-02,-9.748894e-02,-1.100137e-01,-7.642844e-02,-9.413883e-02,4.814998e-02,-5.791824e-03,-2.009562e-02,-3.737995e-03,-4.100908e-03,-1.651676e-02,2.546262e-03,-7.946149e-02,-4.905122e-03,-1.724848e-01,2.633261e-02,-1.916709e-01,-8.956525e-02,4.457087e-02,-8.061213e-02,8.954938e-03,-1.609799e-01,6.067806e-02,-5.913818e-02,-8.776044e-02,3.619519e-02,3.485508e-02,-2.985849e-02,1.869864e-02,-7.314830e-02,-1.621397e-01,-3.245176e-02,-9.482457e-02,-5.982912e-02,-7.617933e-02,-3.121730e-02,4.226980e-02
