-3.651100e-02,5.033457e-02,3.884049e-04,-1.646776e-03,5.229314e-02,-7.789068e-02,-2.187987e-02,7.378678e-02,-1.080288e-02,5.902368e-02,-5.080970e-02,-1.238958e-01,7.418693e-02,-1.080052e-02,-1.425196e-01,-1.787331e-02,7.920051e-02,-5.840515e-02,-5.605264e-02,7.179265e-02,3.611561e-02,2.921314e-03,3.784222e-02,3.365111e-02,-1.665690e-01,9.662200e-04,-2.087564e-02,-7.900742e-02,3.937668e-02,-2.074914e-01,7.510592e-03,-1.310693e-02,1.020784e-02,2.870235e-02,-1.896272e-02,-8.598855e-02,-5.560941e-02,2.990934e-02,-1.013458e-01,7.288443e-02,-1.767283e-02,1.651495e-02,-8.085043e-02,4.478339e-02,1.655812e-01,-1.425858e-01,-1.388354e-01,-1.030875e-01,-1.139770e-01,-1.259660e-01,4.173794e-02,-3.660219e-03,3.056711e-02,-9.473121e-02,-6.232064e-02,-2.066421e-02,2.719150e-02,-3.990874e-02,-9.586317e-02,-4.350337e-02,-1.037828e-01,2.286164e-02,5.569607e-03,-3.528647e-02,1.880950e-02,-1.185478e-02,2.802283e-02,6.487232e-02,-2.164216e-02,-5.184847e-02,2.944555e-02,-3.236233e-02,1.613340e-02,-1.589973e-01,-2.006507e-01,-2.624447e-01,-1.291522e-02,2.857624e-02,-1.305268e-03,3.709910e-02,-1.062542e-01,-1.653579e-02,-5.681225e-02,-8.155423e-02,-1.123030e-01,-2.398045e-03,4.498859e-02,-8.868148e-02,-3.391897e-01,-3.309271e-01,-1.015623e-01,-5.163833e-02,3.880440e-02,4.272202e-02,4.808995e-02,-1.696526e-01,4.788545e-02,3.126173e-02,-1.786714e-02,2.295057e-02,-1.365106e-02,1.921665e-02,-3.933535e-02,9.023244e-02,-1.390473e-02,-4.443990e-03,-3.703599e-02,1.118630e-02,-4.074500e-01,-1.227999e-01,-2.885616e-03,1.512964e-03,-1.256432e-02,-6.501932e-02,2.393757e-02,-1.429504e-01,-1.837688e-02,5.789020e-02,4.879460e-02,-9.888978e-02,-2.716696e-02,1.165837e-02,-1.381354e-01,-1.512581e-01,-4.687762e-02,2.286809e-02,-8.491888e-02,-6.650970e-02,8.087563e-02,-3.423318e-02,3.786397e-03,-5.977072e-02,8.016679e-03,-1.177316e-02,-1.596693e-01,-7.650372e-03,-9.857991e-02,1.535342e-02,5.346851e-02,-2.837174e-02,5.120233e-02,-2.328633e-02,-5.953213e-03,-4.217062e-02,-4.685923e-03,-3.579983e-01,-3.340083e-01,-9.968553e-02,-7.254560e-02,-4.232796e-02,-8.858182e-02,-7.046969e-02,-2.893386e-02,-5.077203e-02,-6.917954e-02,-5.043883e-01,3.688405e-02,-1.148199e-02,-5.742203e-02,-2.536227e-02,-3.252951e-02,-4.509960e-02,-5.064818e-02,-3.640042e-02,3.068401e-02,4.776880e-02,-2.553583e-01,-5.030211e-02,-1.150993e-02,3.179884e-02,-4.596264e-02,8.659483e-02,-3.712969e-02,-5.579244e-02,5.714332e-02,-8.110818e-03,2.521629e-02,-3.418552e-02,5.041080e-02,-8.179045e-02,-2.698742e-02,-2.690437e-02,4.146549e-02,-1.867082e-02,4.998884e-02,4.130179e-02,-8.799049e-02,-4.708781e-03,-2.743924e-01,2.538666e-02,6.892468e-03,-3.707020e-02,-2.328398e-02,-6.363009e-02,-1.438196e-02,5.000418e-02,5.241810e-02,-6.487015e-03,-3.280430e-02,3.281239e-02,-4.041631e-01,-1.102625e-01,-1.297919e-01,6.020611e-02,2.340583e-02,-6.754654e-02,7.296784e-02,-5.064047e-02,-3.708946e-02,-1.222001e-01,-7.589734e-02,-1.822141e-01,-9.047425e-02,-1.124185e-01,-1.365474e-01,3.713146e-03,4.740946e-03,-6.930291e-02,2.667958e-02,-1.781133e-02,-3.401959e-02,-3.782806e-01,-1.418354e-01,-5.134277e-02,-4.435794e-02,-3.225772e-02,-1.570866e-01,4.560699e-03,-4.458456e-02,-1.804185e-01,-8.701621e-02,7.851465e-02,-1.690607e-02,-1.123335e-01,-1.895189e-01,-1.601902e-02,-1.255383e-02,4.527591e-02,3.971099e-02,-6.892238e-03,6.103582e-02,-1.938207e-02,-1.680177e-02,-3.034469e-01,8.740295e-03,-4.004495e-02,5.134559e-02,-9.562577e-02,-8.396247e-02,6.547741e-02,1.328930e-01,6.733072e-02,-7.490280e-02,6.869635e-02,-3.909285e-02,-1.662186e-02
