3.779922e-01,1.887785e-01,-9.838442e-02,-1.578199e-01,-1.649028e-02,4.710644e-02,1.473030e-01,-3.183196e-01,-1.454467e-01,-3.933948e-02,1.737352e-02,-2.501917e-01,-1.078341e-01,-2.857923e-01,3.616442e-01,1.416871e-01,1.185728e-01,1.613906e-01,-3.039987e-01,4.676339e-02,1.252225e-01,-3.632208e-02,2.321681e-01,1.257758e-01,-9.976605e-02,-2.523752e-01,-5.563338e-01,-3.728236e-01,-3.747466e-02,-2.617779e-01,4.462832e-02,2.658136e-02,-5.873959e-02,-3.502685e-01,-1.455311e-01,1.528349e-01,-6.724201e-02,-6.409257e-02,1.034365e-01,-3.767549e-01,5.523013e-03,-9.971400e-03,-3.590773e-01,-2.081931e-01,-2.362936e-01,8.321235e-02,1.143135e-01,2.707454e-01,2.206804e-01,-1.134247e-01,-5.717722e-02,-1.683083e-03,1.599818e-02,-8.562830e-02,1.364772e-01,-2.033817e-01,-1.194430e-01,-4.228791e-02,2.698974e-01,1.995376e-02,-2.600028e-01,1.055180e-01,5.306963e-02,4.732744e-02,3.952187e-01,1.978747e-01,-9.643609e-02,-1.917574e-01,1.366513e-01,4.103496e-01,1.280189e-01,1.354221e-02,2.771853e-02,3.395306e-01,-2.936611e-01,-1.227901e-01,1.816626e-01,-5.293996e-03,1.705436e-01,2.010912e-01,4.275459e-01,-2.321789e-02,5.506044e-02,-6.964814e-02,1.961316e-01,2.251306e-01,4.568298e-01,3.375706e-02,5.906099e-02,-1.861569e-01,-1.470514e-01,3.449666e-02,3.025071e-01,4.054602e-02,-2.267476e-01,3.362271e-01,4.459664e-03,-3.099028e-01,2.435004e-01,-1.219075e-01,4.298033e-02,5.289258e-01,1.213408e-01,8.125961e-02,1.292403e-01,-9.451538e-02,1.983318e-01,-1.399653e-01,-2.466327e-01,2.113328e-02,-1.718096e-01,-2.000404e-01,1.520354e-01,4.093295e-01,-4.613267e-01,2.858509e-01,1.409063e-01,2.724674e-02,1.279899e-01,-2.702976e-01,-3.077417e-01,7.708430e-02,-6.111818e-02,2.759694e-01,1.033776e-01,1.876907e-01,-6.075331e-03,-3.707967e-02,5.066709e-02,1.623010e-02,-2.062029e-02,-2.226818e-01,1.468213e-01,6.114887e-02,-2.508061e-01,3.357004e-01,5.214120e-02,3.630719e-01,4.584366e-02,-7.912248e-02,-3.457937e-01,3.274969e-01,-5.042875e-01,-3.852222e-01,-1.907714e-01,-4.611977e-02,-2.160494e-01,-7.585860e-02,-1.339940e-01,1.853402e-01,3.283722e-01,-2.628614e-01,1.174898e-01,1.165238e-01,-5.197529e-03,-2.987203e-01,1.072971e-02,-1.483799e-01,-2.688571e-01,-1.388894e-02,1.035554e-01,2.600052e-01,1.887822e-01,-3.643929e-01,2.817055e-02,1.892622e-01,1.141269e-02,-1.720564e-02,-4.742244e-02,-9.367641e-02,-1.728206e-01,2.966492e-01,-1.431086e-01,-1.926284e-01,-2.449889e-02,6.418043e-02,2.276593e-02,6.351925e-02,3.624552e-02,1.637770e-01,-5.108829e-01,-1.273002e-01,-2.790036e-01,-3.341970e-01,1.820143e-01,2.358255e-02,-2.804915e-01,1.394179e-02,2.393586e-01,1.511328e-01,-7.564470e-02,-5.198363e-02,-1.822087e-01,-2.275958e-01,3.260172e-01,-1.362998e-01,4.451117e-02,3.769882e-02,1.777323e-01,2.926677e-01,-5.327355e-02,2.760771e-01,1.607002e-01,-1.698317e-01,1.738928e-01,3.053567e-02,-9.156639e-02,4.393544e-02,2.509769e-02,4.629293e-01,-8.432977e-02,-2.572771e-01,-2.056970e-01,-1.153659e-01,-2.788245e-01,-3.370899e-01,-4.105318e-01,-1.857942e-01,-8.555863e-02,4.061290e-02,-2.809423e-01,-7.947003e-02,-2.061746e-03,-8.153734e-02,-1.899740e-01,5.460144e-02,-5.084599e-01,-3.198992e-01,-1.975452e-01,-2.303272e-01,-8.589867e-02,3.410594e-01,6.050657e-02,-2.280850e-01,1.705576e-02,1.201029e-01,3.389304e-01,-2.856771e-01,2.331832e-02,-2.658501e-01,-1.906528e-01,-3.571378e-01,4.593316e-02,4.215277e-01,-2.119519e-01,-1.570969e-01,-2.914803e-01,-2.499580e-01,1.630758e-01,-9.555914e-02,-6.894281e-03,-3.341727e-01,-2.485429e-01,-1.409239e-01,1.215695e-01,1.458018e-01
