-6.283332e-02,-9.344746e-02,-2.297672e-01,-4.230238e-02,-1.183442e-01,-2.379929e-02,-1.495582e-01,6.539436e-02,-1.017086e-01,-1.048814e-02,-3.612043e-01,-1.271637e-01,1.206996e-01,8.641991e-02,-8.607543e-03,4.803581e-02,-2.567344e-02,8.499900e-02,2.851328e-01,-2.457644e-01,-7.563904e-03,9.295034e-02,-1.336285e-01,-3.362438e-02,-2.423703e-02,-1.316027e-01,-7.687354e-02,2.564847e-02,-2.614401e-01,6.698871e-03,9.462635e-03,8.377961e-02,-1.802696e-01,1.068523e-01,9.602499e-03,-2.452445e-01,1.236840e-01,-2.165584e-02,1.974812e-01,-6.047938e-03,1.185062e-01,6.435665e-02,8.424164e-02,-7.779326e-02,-4.582656e-02,9.893113e-04,-9.246962e-02,6.708866e-02,-2.025177e-02,2.978336e-02,1.526303e-03,2.241168e-02,-1.913931e-01,-1.936099e-01,-2.427450e-01,-1.005886e-01,9.347974e-02,-2.605829e-01,1.275042e-01,-8.531395e-02,-2.862812e-01,-7.057071e-02,-2.459570e-01,1.633381e-01,8.981673e-02,-2.599293e-01,2.991040e-01,4.960661e-02,5.499220e-02,-1.583910e-01,7.089689e-02,-9.279329e-02,-1.015370e-01,1.046776e-01,2.419323e-01,9.020899e-04,-8.279192e-02,-1.387350e-01,1.206555e-02,-4.773998e-02,1.345732e-02,-1.113661e-01,-8.119968e-02,-1.589417e-01,-1.478905e-01,9.968788e-02,-2.753483e-01,9.913512e-02,2.909471e-02,1.987899e-01,4.264709e-02,-1.662799e-01,9.513677e-02,4.030642e-03,1.079988e-01,8.893359e-02,2.445443e-01,7.060403e-02,5.004809e-02,-2.647828e-01,-1.683869e-01,-6.228571e-02,1.496631e-02,-2.273344e-01,1.225366e-02,9.482887e-02,-6.679751e-03,1.297948e-01,7.373318e-02,1.960369e-01,-1.691318e-01,-2.352465e-02,-1.736133e-01,2.169595e-01,-1.882218e-01,9.213691e-02,-8.781426e-02,-1.559197e-01,3.006877e-01,-2.501182e-02,-3.555763e-01,7.378293e-02,8.811644e-02,1.109643e-01,-4.544315e-02,-2.573434e-02,-2.383563e-02,-9.579029e-02,-2.625296e-01,-4.265222e-01,-2.854534e-01,-1.866991e-01,-2.892987e-01,3.024693e-02,2.035461e-01,2.231859e-01,2.438621e-02,-2.778078e-01,-7.408634e-02,-1.293501e-01,-2.425222e-01,-6.194505e-02,-1.026640e-01,2.564614e-02,9.693046e-02,9.719441e-02,-5.869243e-02,1.346699e-01,-2.226507e-01,-1.793365e-01,-2.825183e-01,-3.416736e-01,1.930534e-01,1.550000e-02,-5.244859e-02,-5.565787e-02,-4.963253e-02,7.113869e-03,-2.851242e-01,-1.785009e-01,-2.649176e-01,1.547419e-01,-9.137344e-02,-1.108483e-01,-1.162264e-01,8.323231e-02,2.428233e-01,1.199627e-02,8.785439e-02,-7.848729e-02,1.754937e-01,-2.249382e-01,-1.234818e-01,-1.215950e-01,-2.902305e-01,1.459401e-02,4.528002e-02,-3.265673e-02,4.587447e-03,-5.163730e-02,-1.619555e-01,3.006720e-03,-1.515973e-01,-1.145570e-01,-1.683463e-01,-1.624541e-01,-1.490947e-01,-1.832334e-01,-1.899175e-01,-5.665616e-02,-2.330284e-01,-2.241995e-01,9.458663e-02,-2.517130e-01,8.582442e-02,-8.584647e-03,-1.219228e-01,1.605667e-01,2.290547e-01,3.739586e-02,-1.367090e-01,-5.546989e-02,-1.454552e-01,-1.240326e-01,-3.044064e-01,-2.039631e-01,-5.612609e-02,-4.204480e-01,-2.982153e-01,-3.496297e-01,7.188953e-03,2.174349e-02,-1.853796e-01,2.242741e-01,-8.416081e-02,-1.158169e-01,-7.215016e-02,1.680319e-01,-1.686757e-01,-9.728395e-02,5.123205e-02,-2.258805e-03,-3.146058e-02,-1.138615e-01,-3.920405e-02,5.990314e-02,-1.705533e-01,-6.078728e-02,-1.368886e-01,4.643213e-02,1.193969e-01,-1.273670e-01,1.050764e-01,1.611411e-01,-3.781746e-01,6.514534e-02,-1.207164e-01,-8.376288e-02,-9.047085e-02,-2.648522e-01,-4.395128e-02,-5.097902e-02,1.548030e-01,5.405181e-02,-7.939191e-02,-1.974616e-01,-1.403181e-01,1.085136e-01,1.830731e-01,-2.153314e-01,-2.003638e-01,-5.430285e-02,2.123742e-01,-8.123209e-02,-3.198823e-02,3.200193e-02
